digraph Tree {
node [shape=box, style="filled, rounded", color="black", fontname="helvetica"] ;
edge [fontname="helvetica"] ;
0 [label="worst concave points <= 0.324\ngini = 0.463\nsamples = 483\nvalue = [176, 307]\nclass = benign", fillcolor="#abd5f4"] ;
1 [label="mean radius <= 0.255\ngini = 0.131\nsamples = 312\nvalue = [22, 290]\nclass = benign", fillcolor="#48a4e7"] ;
0 -> 1 [labeldistance=2.5, labelangle=45, headlabel="True"] ;
2 [label="worst concave points <= -0.052\ngini = 0.034\nsamples = 287\nvalue = [5, 282]\nclass = benign", fillcolor="#3d9fe5"] ;
1 -> 2 ;
3 [label="mean texture <= 0.699\ngini = 0.008\nsamples = 262\nvalue = [1, 261]\nclass = benign", fillcolor="#3a9de5"] ;
2 -> 3 ;
4 [label="gini = 0.0\nsamples = 231\nvalue = [0, 231]\nclass = benign", fillcolor="#399de5"] ;
3 -> 4 ;
5 [label="mean texture <= 0.726\ngini = 0.062\nsamples = 31\nvalue = [1, 30]\nclass = benign", fillcolor="#40a0e6"] ;
3 -> 5 ;
6 [label="gini = 0.0\nsamples = 1\nvalue = [1, 0]\nclass = malignant", fillcolor="#e58139"] ;
5 -> 6 ;
7 [label="gini = 0.0\nsamples = 30\nvalue = [0, 30]\nclass = benign", fillcolor="#399de5"] ;
5 -> 7 ;
8 [label="worst fractal dimension <= -0.254\ngini = 0.269\nsamples = 25\nvalue = [4, 21]\nclass = benign", fillcolor="#5fb0ea"] ;
2 -> 8 ;
9 [label="symmetry error <= -0.649\ngini = 0.49\nsamples = 7\nvalue = [4, 3]\nclass = malignant", fillcolor="#f8e0ce"] ;
8 -> 9 ;
10 [label="gini = 0.0\nsamples = 3\nvalue = [3, 0]\nclass = malignant", fillcolor="#e58139"] ;
9 -> 10 ;
11 [label="gini = 0.375\nsamples = 4\nvalue = [1, 3]\nclass = benign", fillcolor="#7bbeee"] ;
9 -> 11 ;
12 [label="gini = 0.0\nsamples = 18\nvalue = [0, 18]\nclass = benign", fillcolor="#399de5"] ;
8 -> 12 ;
13 [label="mean texture <= -0.525\ngini = 0.435\nsamples = 25\nvalue = [17, 8]\nclass = malignant", fillcolor="#f1bc96"] ;
1 -> 13 ;
14 [label="gini = 0.0\nsamples = 5\nvalue = [0, 5]\nclass = benign", fillcolor="#399de5"] ;
13 -> 14 ;
15 [label="worst smoothness <= -1.908\ngini = 0.255\nsamples = 20\nvalue = [17, 3]\nclass = malignant", fillcolor="#ea975c"] ;
13 -> 15 ;
16 [label="gini = 0.0\nsamples = 1\nvalue = [0, 1]\nclass = benign", fillcolor="#399de5"] ;
15 -> 16 ;
17 [label="worst compactness <= 0.512\ngini = 0.188\nsamples = 19\nvalue = [17, 2]\nclass = malignant", fillcolor="#e89050"] ;
15 -> 17 ;
18 [label="mean texture <= -0.199\ngini = 0.105\nsamples = 18\nvalue = [17, 1]\nclass = malignant", fillcolor="#e78845"] ;
17 -> 18 ;
19 [label="gini = 0.5\nsamples = 2\nvalue = [1, 1]\nclass = malignant", fillcolor="#ffffff"] ;
18 -> 19 ;
20 [label="gini = 0.0\nsamples = 16\nvalue = [16, 0]\nclass = malignant", fillcolor="#e58139"] ;
18 -> 20 ;
21 [label="gini = 0.0\nsamples = 1\nvalue = [0, 1]\nclass = benign", fillcolor="#399de5"] ;
17 -> 21 ;
22 [label="mean concavity <= -0.205\ngini = 0.179\nsamples = 171\nvalue = [154, 17]\nclass = malignant", fillcolor="#e88f4f"] ;
0 -> 22 [labeldistance=2.5, labelangle=-45, headlabel="False"] ;
23 [label="gini = 0.0\nsamples = 4\nvalue = [0, 4]\nclass = benign", fillcolor="#399de5"] ;
22 -> 23 ;
24 [label="concavity error <= 3.263\ngini = 0.144\nsamples = 167\nvalue = [154, 13]\nclass = malignant", fillcolor="#e78c4a"] ;
22 -> 24 ;
25 [label="mean texture <= -0.638\ngini = 0.104\nsamples = 163\nvalue = [154, 9]\nclass = malignant", fillcolor="#e78845"] ;
24 -> 25 ;
26 [label="worst concave points <= 0.906\ngini = 0.465\nsamples = 19\nvalue = [12, 7]\nclass = malignant", fillcolor="#f4caac"] ;
25 -> 26 ;
27 [label="radius error <= 0.592\ngini = 0.42\nsamples = 10\nvalue = [3, 7]\nclass = benign", fillcolor="#8ec7f0"] ;
26 -> 27 ;
28 [label="mean concavity <= -0.126\ngini = 0.219\nsamples = 8\nvalue = [1, 7]\nclass = benign", fillcolor="#55abe9"] ;
27 -> 28 ;
29 [label="gini = 0.0\nsamples = 1\nvalue = [1, 0]\nclass = malignant", fillcolor="#e58139"] ;
28 -> 29 ;
30 [label="gini = 0.0\nsamples = 7\nvalue = [0, 7]\nclass = benign", fillcolor="#399de5"] ;
28 -> 30 ;
31 [label="gini = 0.0\nsamples = 2\nvalue = [2, 0]\nclass = malignant", fillcolor="#e58139"] ;
27 -> 31 ;
32 [label="gini = 0.0\nsamples = 9\nvalue = [9, 0]\nclass = malignant", fillcolor="#e58139"] ;
26 -> 32 ;
33 [label="mean radius <= -0.874\ngini = 0.027\nsamples = 144\nvalue = [142, 2]\nclass = malignant", fillcolor="#e5833c"] ;
25 -> 33 ;
34 [label="gini = 0.5\nsamples = 2\nvalue = [1, 1]\nclass = malignant", fillcolor="#ffffff"] ;
33 -> 34 ;
35 [label="worst concave points <= 0.406\ngini = 0.014\nsamples = 142\nvalue = [141, 1]\nclass = malignant", fillcolor="#e5823a"] ;
33 -> 35 ;
36 [label="mean fractal dimension <= -0.206\ngini = 0.32\nsamples = 5\nvalue = [4, 1]\nclass = malignant", fillcolor="#eca06a"] ;
35 -> 36 ;
37 [label="gini = 0.0\nsamples = 4\nvalue = [4, 0]\nclass = malignant", fillcolor="#e58139"] ;
36 -> 37 ;
38 [label="gini = 0.0\nsamples = 1\nvalue = [0, 1]\nclass = benign", fillcolor="#399de5"] ;
36 -> 38 ;
39 [label="gini = 0.0\nsamples = 137\nvalue = [137, 0]\nclass = malignant", fillcolor="#e58139"] ;
35 -> 39 ;
40 [label="gini = 0.0\nsamples = 4\nvalue = [0, 4]\nclass = benign", fillcolor="#399de5"] ;
24 -> 40 ;
}