digraph Tree {
node [shape=box, style="filled, rounded", color="black", fontname="helvetica"] ;
edge [fontname="helvetica"] ;
0 [label="worst concave points <= 0.324\ngini = 0.463\nsamples = 483\nvalue = [176, 307]\nclass = benign", fillcolor="#abd5f4"] ;
1 [label="mean radius <= 0.255\ngini = 0.131\nsamples = 312\nvalue = [22, 290]\nclass = benign", fillcolor="#48a4e7"] ;
0 -> 1 [labeldistance=2.5, labelangle=45, headlabel="True"] ;
2 [label="worst concave points <= -0.052\ngini = 0.034\nsamples = 287\nvalue = [5, 282]\nclass = benign", fillcolor="#3d9fe5"] ;
1 -> 2 ;
3 [label="mean texture <= 0.699\ngini = 0.008\nsamples = 262\nvalue = [1, 261]\nclass = benign", fillcolor="#3a9de5"] ;
2 -> 3 ;
4 [label="gini = 0.0\nsamples = 231\nvalue = [0, 231]\nclass = benign", fillcolor="#399de5"] ;
3 -> 4 ;
5 [label="worst smoothness <= 0.087\ngini = 0.062\nsamples = 31\nvalue = [1, 30]\nclass = benign", fillcolor="#40a0e6"] ;
3 -> 5 ;
6 [label="gini = 0.0\nsamples = 26\nvalue = [0, 26]\nclass = benign", fillcolor="#399de5"] ;
5 -> 6 ;
7 [label="gini = 0.32\nsamples = 5\nvalue = [1, 4]\nclass = benign", fillcolor="#6ab6ec"] ;
5 -> 7 ;
8 [label="worst fractal dimension <= -0.254\ngini = 0.269\nsamples = 25\nvalue = [4, 21]\nclass = benign", fillcolor="#5fb0ea"] ;
2 -> 8 ;
9 [label="gini = 0.49\nsamples = 7\nvalue = [4, 3]\nclass = malignant", fillcolor="#f8e0ce"] ;
8 -> 9 ;
10 [label="gini = 0.0\nsamples = 18\nvalue = [0, 18]\nclass = benign", fillcolor="#399de5"] ;
8 -> 10 ;
11 [label="mean texture <= -0.525\ngini = 0.435\nsamples = 25\nvalue = [17, 8]\nclass = malignant", fillcolor="#f1bc96"] ;
1 -> 11 ;
12 [label="gini = 0.0\nsamples = 5\nvalue = [0, 5]\nclass = benign", fillcolor="#399de5"] ;
11 -> 12 ;
13 [label="texture error <= 0.187\ngini = 0.255\nsamples = 20\nvalue = [17, 3]\nclass = malignant", fillcolor="#ea975c"] ;
11 -> 13 ;
14 [label="gini = 0.0\nsamples = 11\nvalue = [11, 0]\nclass = malignant", fillcolor="#e58139"] ;
13 -> 14 ;
15 [label="gini = 0.444\nsamples = 9\nvalue = [6, 3]\nclass = malignant", fillcolor="#f2c09c"] ;
13 -> 15 ;
16 [label="mean texture <= -0.638\ngini = 0.179\nsamples = 171\nvalue = [154, 17]\nclass = malignant", fillcolor="#e88f4f"] ;
0 -> 16 [labeldistance=2.5, labelangle=-45, headlabel="False"] ;
17 [label="worst concave points <= 0.906\ngini = 0.496\nsamples = 22\nvalue = [12, 10]\nclass = malignant", fillcolor="#fbeade"] ;
16 -> 17 ;
18 [label="compactness error <= 0.238\ngini = 0.355\nsamples = 13\nvalue = [3, 10]\nclass = benign", fillcolor="#74baed"] ;
17 -> 18 ;
19 [label="gini = 0.5\nsamples = 6\nvalue = [3, 3]\nclass = malignant", fillcolor="#ffffff"] ;
18 -> 19 ;
20 [label="gini = 0.0\nsamples = 7\nvalue = [0, 7]\nclass = benign", fillcolor="#399de5"] ;
18 -> 20 ;
21 [label="gini = 0.0\nsamples = 9\nvalue = [9, 0]\nclass = malignant", fillcolor="#e58139"] ;
17 -> 21 ;
22 [label="concavity error <= 2.541\ngini = 0.09\nsamples = 149\nvalue = [142, 7]\nclass = malignant", fillcolor="#e68743"] ;
16 -> 22 ;
23 [label="mean concavity <= 0.097\ngini = 0.054\nsamples = 144\nvalue = [140, 4]\nclass = malignant", fillcolor="#e6853f"] ;
22 -> 23 ;
24 [label="radius error <= -0.443\ngini = 0.391\nsamples = 15\nvalue = [11, 4]\nclass = malignant", fillcolor="#eeaf81"] ;
23 -> 24 ;
25 [label="gini = 0.444\nsamples = 6\nvalue = [2, 4]\nclass = benign", fillcolor="#9ccef2"] ;
24 -> 25 ;
26 [label="gini = 0.0\nsamples = 9\nvalue = [9, 0]\nclass = malignant", fillcolor="#e58139"] ;
24 -> 26 ;
27 [label="gini = 0.0\nsamples = 129\nvalue = [129, 0]\nclass = malignant", fillcolor="#e58139"] ;
23 -> 27 ;
28 [label="gini = 0.48\nsamples = 5\nvalue = [2, 3]\nclass = benign", fillcolor="#bddef6"] ;
22 -> 28 ;
}